{"W1": [[0.28780558705329895, 0.09961581975221634, -0.8389172554016113], [1.797176718711853, 0.7360799908638, -1.3719292879104614], [2.3366284370422363, 0.7846603393554688, -3.0962069034576416], [3.029280185699463, 1.0694646835327148, -2.9941256046295166], [2.541619300842285, 0.6395869255065918, -4.2901716232299805], [2.6578638553619385, 0.08305221796035767, -4.573638439178467], [0.29770252108573914, 0.7130071520805359, -0.15429939329624176], [0.21168053150177002, -0.13443270325660706, 0.9740105867385864], [0.35539868474006653, 0.27296093106269836, 0.7126444578170776], [0.5592484474182129, 0.29772859811782837, 0.6956194639205933], [0.5770079493522644, 0.27831292152404785, 0.6325511932373047], [0.3018743097782135, 0.03784492239356041, 0.3017598092556], [-0.13602733612060547, -0.21982085704803467, 0.11918961256742477], [0.9424086213111877, -1.1976827383041382, 1.550251841545105], [-1.5845773220062256, 0.7319549322128296, 3.700141429901123], [0.0939369648694992, 0.2985261380672455, 0.6236395239830017], [-0.07408029586076736, -0.2756447494029999, 0.1823997050523758], [0.26204055547714233, -0.09067095071077347, 0.4450114965438843], [0.03625880926847458, -0.007652284111827612, 0.4740604758262634], [0.2900748550891876, -0.18680702149868011, 0.3557327389717102], [1.5716887712478638, -0.5221467018127441, 1.920719861984253], [-0.9298406839370728, 1.1402760744094849, 1.8004591464996338], [-0.48483169078826904, -1.209645390510559, -0.5374523997306824], [-0.057438790798187256, -0.6017080545425415, -0.47574087977409363], [-0.5620669722557068, 0.31520795822143555, -0.01444405596703291], [-0.4499540328979492, -0.15905813872814178, -0.18366220593452454], [-0.003795238211750984, -0.3236273527145386, -0.5167677402496338], [1.0880062580108643, 0.6585754156112671, -0.7378491759300232], [1.3805124759674072, 0.5410000085830688, 2.5772159099578857], [0.5441927909851074, 0.25776949524879456, 0.08062584698200226], [0.0004136189236305654, 0.04169493168592453, -0.6898748278617859], [-0.542107105255127, 0.4303053915500641, -0.47678929567337036], [0.24849271774291992, -0.07295820116996765, -0.0705450028181076], [0.7078428268432617, 0.2064386010169983, 0.2316962629556656], [1.5966346263885498, 1.919267177581787, -1.0566444396972656], [1.8100675344467163, 0.6692543029785156, 1.9903581142425537], [0.9830127954483032, 0.5591257214546204, 0.898313045501709], [0.6205096244812012, 0.22178366780281067, 0.36602041125297546], [0.3118517994880676, -0.0689951628446579, 0.08583533018827438], [0.20046640932559967, 0.06533604115247726, 0.055207960307598114], [0.2025654911994934, 0.2786436975002289, -0.21104681491851807], [0.50911945104599, 1.5831576585769653, -1.5993592739105225], [0.16824980080127716, -0.4078159034252167, 0.9425972700119019], [-0.7148334980010986, -1.7472708225250244, 3.104893684387207], [-0.12649555504322052, -1.0996181964874268, 2.7008168697357178], [-0.4567945897579193, -0.4757734537124634, 2.1433005332946777], [-1.0907094478607178, -0.7436577677726746, 1.8954797983169556], [-2.5185108184814453, -1.5376499891281128, 2.1819472312927246], [0.5611792802810669, -0.1617240011692047, 0.2645473778247833]], "W2": [[-0.6180002093315125, -1.3081371784210205, -0.07335561513900757], [1.616499423980713, -0.6907553672790527, -1.63463294506073], [0.9741886258125305, 1.0062612295150757, 1.802594542503357]], "W3": [[-2.8041176795959473, 1.921966791152954, 1.196940541267395, 0.8888072967529297, -2.6549923419952393, -0.788701593875885, -1.4998624324798584, -0.0058450461365282536, 0.40526628494262695, -1.6290403604507446], [-4.126482009887695, 0.6317732334136963, -3.8104212284088135, -1.9401339292526245, 2.151820421218872, -1.4896479845046997, -2.2622406482696533, 0.49747443199157715, -1.1518741846084595, 2.2323403358459473], [2.0453286170959473, -2.427000045776367, -0.6302735209465027, 1.3616082668304443, -1.2758070230484009, 1.2676340341567993, -1.2640247344970703, 0.6170453429222107, 0.3385270833969116, -0.45129525661468506]], "b1": [0.996607780456543, 0.694892168045044, 0.8731218576431274], "b2": [0.257425457239151, 2.430967092514038, 0.4719289243221283], "b3": [2.1189584732055664, -3.8982138633728027, 2.005340814590454, -2.118025541305542, 0.40162524580955505, 0.8497946858406067, 5.205576419830322, -3.454197883605957, 0.38117897510528564, -2.461282253265381], "architecture": {"input": 49, "hidden1": 3, "hidden2": 3, "output": 10}}